#pragma once
#include "left_shift_buffer.h"
#include "block.h"
#include "rolling_cache.h"
#include "classifier.h"

LeftShiftBuffer left_shift_input_buffer(
    4,   // kernel size
    1);  // feature depth

float b0_c1_kernel[4*1*4] = {0.3328917622566223, -0.2771143615245819, 0.3177008032798767, -0.16394592821598053, -0.17954930663108826, -0.14067453145980835, 0.3003876507282257, 0.1795559674501419, -0.16687259078025818, -0.03527696803212166, 0.23882554471492767, 0.25872454047203064, -0.17364485561847687, -0.23624010384082794, 0.1959349513053894, 0.23369549214839935};
float b0_c1_bias[4] = {-0.16431954503059387, -0.07620869576931, 0.14737939834594727, 0.06765847653150558};
float b0_c2_kernel[1*4*4] = {0.2008325159549713, -0.05456465110182762, -0.4759284257888794, 0.4558911621570587, 0.8161277174949646, -0.313148558139801, -0.073731929063797, 0.036743346601724625, 0.2299761027097702, 0.18280281126499176, 0.12131042033433914, 0.5498533248901367, -0.40410125255584717, 0.07734619081020355, 0.49427530169487, -0.42008206248283386};
float b0_c2_bias[4] = {-0.00740239629521966, 0.12733837962150574, 0.18047894537448883, 0.020073814317584038};
Block block0(4, // kernel_size
             1, 4, // in_d, out_d
             b0_c1_kernel, b0_c1_bias, b0_c2_kernel, b0_c2_bias);

float b1_c1_kernel[4*4*8] = {-0.038518983870744705, 0.10246770083904266, -0.07854431122541428, -0.2581212520599365, -0.1564434915781021, -0.13992755115032196, 0.22055475413799286, 0.014780238270759583, 0.4870343804359436, -0.38216596841812134, 0.07558004558086395, -0.1851976364850998, -0.10440444946289062, 0.27729952335357666, 0.08239006996154785, 0.18971572816371918, 0.11848245561122894, -0.09071647375822067, -0.04415278881788254, 0.28400829434394836, 0.15797387063503265, 0.28217023611068726, -0.30727168917655945, -0.11921966820955276, 0.294850617647171, -0.4337921440601349, 0.05839398503303528, -0.2727356553077698, 0.008909768424928188, 0.1456882357597351, 0.10271859914064407, 0.33154934644699097, 0.15399284660816193, -0.10929299145936966, -0.189256489276886, 0.06913477927446365, 0.4146411418914795, -0.15941552817821503, 0.031012196093797684, -0.17032882571220398, 0.07939896732568741, 0.02643509954214096, -0.0008729328401386738, 0.0446738600730896, 0.07194006443023682, -0.10658617317676544, 0.1571931391954422, 0.352726548910141, -0.024203907698392868, 0.21269479393959045, -0.1161068007349968, 0.014705635607242584, -0.23477907478809357, 0.15057465434074402, -0.13888849318027496, 0.2341867834329605, -0.09197206795215607, 0.2567388415336609, -0.16756775975227356, 0.003680045483633876, 0.11299142241477966, -0.1507980078458786, 0.06473683565855026, 0.19831718504428864, 0.09208647906780243, 0.13851696252822876, 0.15410670638084412, 0.25610965490341187, 0.22297686338424683, -0.018659474328160286, -0.014275984838604927, -0.1104525476694107, 0.28799447417259216, 0.09616541117429733, 0.21725237369537354, 0.2485295981168747, -0.16258445382118225, -0.22295013070106506, 0.06659351289272308, 0.3928517699241638, -0.02944313734769821, 0.13671287894248962, 0.13632509112358093, 0.29030555486679077, 0.3885572552680969, 0.09340179711580276, 0.026190591976046562, 0.14795365929603577, -0.18433937430381775, 0.1996041089296341, 0.07188699394464493, 0.013141496106982231, -0.020860830321907997, 0.34990888833999634, -0.04788505285978317, 0.3234085738658905, 0.06188115105032921, 0.29580238461494446, 0.20797199010849, 0.20251362025737762, 0.23657439649105072, 0.15648026764392853, -0.09795114398002625, -0.03815923631191254, 0.17214512825012207, -0.041547976434230804, 0.028403205797076225, -0.00842013955116272, 0.08047688752412796, 0.10539892315864563, 0.33015722036361694, -0.19364966452121735, -0.07229025661945343, -0.15169298648834229, -0.007829154841601849, -0.044760920107364655, -0.1129504069685936, 0.15528255701065063, 0.28316813707351685, -0.0009236607584170997, -0.007832519710063934, -0.10884387791156769, -0.1986950933933258, -0.09052004665136337, -0.12404327094554901, -0.14419355988502502, -0.08562301844358444, 0.11897530406713486};
float b1_c1_bias[8] = {0.12966854870319366, 0.17380326986312866, 0.030826078727841377, 0.03207136690616608, -0.01570146530866623, 0.11954773217439651, 0.1087048277258873, 0.01516577135771513};
float b1_c2_kernel[1*8*8] = {-0.09595540165901184, -0.1656286120414734, 0.2847652733325958, 0.3351026177406311, 0.6906891465187073, 0.2264104038476944, 0.37403181195259094, -0.5046857595443726, 0.38497042655944824, -0.26686757802963257, 0.03467744588851929, 0.5011150240898132, -0.20194777846336365, 0.6279599070549011, 0.6122323274612427, 0.675868034362793, -0.20014376938343048, -0.31966912746429443, -0.5371304154396057, 0.18181167542934418, -0.04550408944487572, -0.40843433141708374, 0.26585763692855835, -0.36653485894203186, -0.38462480902671814, 0.10252540558576584, -0.03573352098464966, -0.08568990230560303, 0.07813482731580734, 0.007460489869117737, -0.2533523738384247, -0.7181548476219177, -0.00891133677214384, -0.13871298730373383, -0.22010111808776855, -0.4608851969242096, 0.15975160896778107, -0.6514419913291931, -0.5707646012306213, 0.4041879177093506, 0.5559159517288208, 0.2810492217540741, 0.5975044369697571, -0.4135674834251404, 0.15987180173397064, 0.4944566786289215, -0.3076156675815582, 0.10782622545957565, -0.08750735968351364, 0.31634002923965454, -0.03108532726764679, 0.2114599049091339, 0.30465832352638245, -0.28669315576553345, -0.2376023530960083, 0.6436718106269836, -0.030045989900827408, 0.358455628156662, 0.45124563574790955, 0.3382221758365631, 0.04707683250308037, 0.15461662411689758, 0.4185657203197479, 0.27565619349479675};
float b1_c2_bias[8] = {0.01680426299571991, 0.0987209901213646, 0.05524537339806557, 0.01879613660275936, 0.1123519316315651, 0.2919282615184784, 0.04526008665561676, 0.06603813916444778};
Block block1(4, // kernel_size
             4, 8, // in_d, out_d
             b1_c1_kernel, b1_c1_bias, b1_c2_kernel, b1_c2_bias);

float b2_c1_kernel[4*8*8] = {-0.09107596427202225, -0.07382047921419144, 0.12163123488426208, -0.2119150459766388, -0.006371131166815758, -0.17024008929729462, -0.02717689238488674, 0.309526264667511, -0.03842602297663689, -0.13614362478256226, 0.032699909061193466, -0.21037717163562775, 0.18301953375339508, -0.19619494676589966, 0.09221640229225159, 0.11176078766584396, -0.001830082619562745, 0.2451929748058319, 0.2800552248954773, 0.1271471381187439, -0.156649649143219, 0.021977907046675682, 0.08778008818626404, 0.09616829454898834, -0.1561918705701828, -0.03757515177130699, -0.01007163804024458, 0.1526370346546173, -0.047924138605594635, 0.0035256638657301664, -0.0017327818786725402, 0.2070799469947815, 0.09866003692150116, -0.15252384543418884, -0.2631348967552185, 0.2826496958732605, 0.053148217499256134, 0.27257809042930603, 0.13048529624938965, 0.17247988283634186, 0.25946754217147827, -0.12122053653001785, -0.06274206191301346, 0.17641673982143402, -0.023141944780945778, 0.08898736536502838, 0.02661401592195034, -0.26721638441085815, -0.2141142189502716, 0.030739281326532364, -0.2709784209728241, -0.04933806508779526, 0.14559276401996613, 0.10588546097278595, 0.12383134663105011, 0.053340304642915726, -0.22653116285800934, 0.051731981337070465, 0.0002656672731973231, -0.2003697156906128, -0.11791326850652695, -0.19239577651023865, -0.0018186559900641441, 0.19946517050266266, 0.2805235981941223, 0.15326540172100067, 0.3623771667480469, -0.06655390560626984, -0.33939120173454285, 0.002507699653506279, 0.0894012302160263, -0.21220503747463226, 0.022872313857078552, -0.07217352092266083, -0.01917852647602558, 0.27546626329421997, -0.4267987906932831, 0.09902890771627426, 0.2975350618362427, 0.10903443396091461, -0.12941838800907135, 0.14417700469493866, -0.2592124044895172, 0.022294605150818825, -0.18121865391731262, 0.08672013878822327, 0.033340707421302795, 0.09708120673894882, -0.10444583743810654, 0.14896290004253387, 0.05871586501598358, 0.06395460665225983, -0.006056125275790691, 0.23393937945365906, 0.08248111605644226, 0.01885731890797615, 0.09715824574232101, -0.0782974436879158, 0.15539614856243134, 0.03472581505775452, 0.3050951659679413, 0.019709663465619087, -0.07394713163375854, 0.17220033705234528, 0.17924073338508606, 0.10548469424247742, 0.17925508320331573, 0.27346271276474, -0.41616156697273254, -0.050051696598529816, 0.010556981898844242, -0.0008994461968541145, 0.17765672504901886, -0.22843103110790253, 0.09464774280786514, -0.012629806064069271, 0.029462015256285667, -0.04074592888355255, 0.09646769613027573, -0.024946890771389008, 0.4124416708946228, -0.0437573567032814, 0.08004990220069885, 0.11509718000888824, 0.1042354553937912, 0.051210835576057434, -0.2156086266040802, -0.27122631669044495, 0.12183663249015808, -0.28056272864341736, 0.0470268614590168, -0.2109302580356598, 0.1203528344631195, 0.062380582094192505, 0.05398312583565712, -0.20608097314834595, -0.22503340244293213, -0.1995246261358261, 0.2497846782207489, -0.008577870205044746, 0.1823243647813797, 0.3825294077396393, -0.08289413154125214, 0.0756487250328064, -0.2305527627468109, 0.02349509298801422, -0.31588980555534363, -0.07677983492612839, -0.17648416757583618, 0.06273829936981201, 0.19193431735038757, -0.026285504922270775, 0.026596268638968468, 0.0531870499253273, 0.0036183535121381283, 0.03562388941645622, 0.24490462243556976, 0.07146766781806946, 0.01696511171758175, -0.3026445209980011, 0.3432893455028534, -0.0737593024969101, 0.1966671198606491, 0.1722126454114914, -0.0006110268295742571, -0.07420425862073898, 0.01907343417406082, -0.20704127848148346, -0.18925094604492188, -0.28053998947143555, 0.0055542285554111, -0.13861814141273499, 0.06619592756032944, 0.002096394309774041, -0.21152758598327637, 0.13529548048973083, -0.0074462625198066235, 0.15601009130477905, -0.08571789413690567, 0.06901924312114716, -0.1251446008682251, -0.2813376188278198, 0.15746356546878815, 0.032645635306835175, 0.02403145469725132, -0.1692965179681778, 0.055269304662942886, -0.08833394944667816, -0.14433306455612183, 0.03161703795194626, -0.07403784245252609, 0.03380296751856804, 0.38146865367889404, 0.3760022819042206, -0.02069420926272869, -0.09928394109010696, 0.05610400810837746, 0.34988337755203247, 0.35111284255981445, 0.07523515820503235, -0.00612789997830987, 0.3055145740509033, -0.5571257472038269, -0.187682643532753, -0.013016619719564915, 0.4357875883579254, 0.2000114768743515, -0.02212461270391941, 0.14749933779239655, 0.0017119592521339655, 0.2795993685722351, 0.004771850071847439, -0.1971660703420639, 0.44927191734313965, -0.12584878504276276, 0.020833736285567284, 0.19381102919578552, -0.029878323897719383, -0.3368658423423767, 0.22133268415927887, -0.012445904314517975, -0.10121051967144012, 0.4622570872306824, 0.10580737143754959, 0.23823852837085724, -0.037601884454488754, 0.32723259925842285, 0.45871907472610474, 0.27683669328689575, 0.2708408236503601, -0.34813782572746277, -0.23289445042610168, 0.344356507062912, 0.36642158031463623, 0.06856564432382584, -0.1530407816171646, -0.019051814451813698, -0.11551149934530258, 0.14183679223060608, -0.21185755729675293, 0.018971657380461693, 0.13926592469215393, 0.04854494333267212, -0.2500019371509552, 0.29283902049064636, 0.14556004106998444, -0.06393556296825409, 0.020896971225738525, 0.3253393769264221, 0.2516365945339203, -0.466158390045166, 0.3743029832839966, 0.03735865280032158, -0.3827517330646515, 0.06226619333028793, -0.2763667106628418};
float b2_c1_bias[8] = {0.13126890361309052, 0.028355617076158524, 0.0452224537730217, 0.06458691507577896, -0.030581407248973846, 0.03002275712788105, 0.02440948225557804, -0.08942170441150665};
float b2_c2_kernel[1*8*8] = {-0.07692714035511017, 0.3352351188659668, -0.1268632709980011, -0.501906156539917, -0.16926312446594238, 0.6381689310073853, 0.12798890471458435, 0.3439604341983795, -0.4897629916667938, 0.48495692014694214, -0.15998874604701996, 0.038523416966199875, -0.03704928234219551, -0.05423840880393982, 0.318350225687027, -0.2538113594055176, -0.5188806056976318, 0.16637153923511505, 0.03829755634069443, -0.06301870942115784, 0.16489729285240173, -0.706667959690094, -0.31739503145217896, -0.06172695755958557, -0.17936447262763977, -0.434444397687912, 0.44484037160873413, -0.5210117101669312, 0.3548399806022644, -0.20582202076911926, -0.17605239152908325, 0.43136289715766907, 0.13650192320346832, -0.49514099955558777, -0.29574647545814514, 0.5458080172538757, 0.42081499099731445, 0.08772490173578262, 0.3634035587310791, -0.664238691329956, 0.13457238674163818, 0.44508108496665955, -0.165339857339859, 0.03429418057203293, -0.08359064161777496, -0.3633894920349121, 0.5908189415931702, -0.1045195460319519, 0.07717681676149368, -0.39536458253860474, -0.3008992373943329, -0.4475095570087433, -0.28433626890182495, 0.4488910138607025, 0.4189944565296173, -0.3925374746322632, 0.48665851354599, 0.1058814525604248, 0.9631454944610596, -0.12744000554084778, -0.28984129428863525, 0.15834026038646698, 0.12496751546859741, -0.11220091581344604};
float b2_c2_bias[8] = {-0.026092851534485817, 0.11647463589906693, 0.15006470680236816, 0.00911822821944952, 0.1862158328294754, 0.18227070569992065, 0.05684691295027733, 0.0882764384150505};
Block block2(4, // kernel_size
             8, 8, // in_d, out_d
             b2_c1_kernel, b2_c1_bias, b2_c2_kernel, b2_c2_bias);

float b3_c1_kernel[4*8*12] = {0.2019665688276291, -0.20696601271629333, -0.026583300903439522, -0.13810203969478607, 0.11281907558441162, -0.07570924609899521, 0.007958567701280117, 0.04626036062836647, 0.03754023090004921, -0.2753702998161316, 0.18502722680568695, -0.13290588557720184, 0.12591585516929626, -0.06996439397335052, -0.048642780631780624, -0.16048836708068848, 0.1105729267001152, -0.030422264710068703, -0.12875448167324066, 0.011866065673530102, -0.1080453097820282, -0.1623929738998413, -0.1533595621585846, 0.14188389480113983, 0.00857044942677021, -0.4257237911224365, -0.0887247622013092, 0.13017705082893372, -0.08531523495912552, 0.11950523406267166, -0.092361681163311, -0.058472275733947754, -0.02929585427045822, 0.11367776244878769, 0.031085878610610962, 0.13585776090621948, -0.18417547643184662, -0.2808414399623871, 0.17029811441898346, -0.03465210273861885, 0.020214738324284554, -0.06548602879047394, 0.2998107671737671, 0.1843550205230713, -0.2600046694278717, -0.10386388748884201, 0.09427761286497116, 0.103954017162323, 0.14816847443580627, -0.27358242869377136, -0.03262866288423538, 0.15474916994571686, -0.12608247995376587, 0.35910481214523315, 0.06519289314746857, 0.2939756512641907, -0.08452703058719635, 0.09472407400608063, -0.003464176319539547, 0.12945686280727386, -0.022289125248789787, -0.286456435918808, 0.03367796912789345, 0.00044507498387247324, -0.009960543364286423, -0.09754063189029694, -0.16458886861801147, 0.0173796433955431, -0.04562969133257866, -0.05365128442645073, -0.07220835238695145, -0.10325784236192703, 0.17143701016902924, 0.1635010689496994, 0.01628446765244007, 0.19569043815135956, -0.1653025895357132, 0.1432391256093979, 0.1391560286283493, -0.014946997165679932, 0.1173374205827713, 0.37920552492141724, -0.10487063974142075, 0.15685178339481354, -0.06345494836568832, -0.2609941065311432, -0.02881479635834694, 0.18394915759563446, -0.09060876816511154, 0.24712789058685303, 0.332852303981781, -0.03616739436984062, 0.11440244317054749, 0.09303810447454453, 0.1471344232559204, 0.0648847222328186, 0.06835546344518661, -0.18520624935626984, 0.22249165177345276, -0.24231450259685516, 0.14208531379699707, -0.17572230100631714, 0.07820882648229599, -0.2039598971605301, 0.22952426970005035, 0.10022616386413574, 0.03860415890812874, -0.03183984383940697, -0.019208412617444992, 0.09720892459154129, -0.1907135248184204, 0.1275937855243683, 0.13157188892364502, 0.035494156181812286, -0.03499207645654678, 0.06979254633188248, 0.10714869946241379, 0.18922559916973114, -0.10626913607120514, 0.13443778455257416, -0.21085792779922485, 0.04705508425831795, -0.3015255630016327, 0.2038375735282898, 0.04346378892660141, 0.15940028429031372, 0.03202298656105995, -0.13981333374977112, 0.09958682209253311, 0.14749689400196075, 0.2338038831949234, -0.058367714285850525, -0.15597228705883026, 0.1404034048318863, -0.05488042160868645, 0.285261869430542, 0.11260565370321274, -0.025536764413118362, 0.2608179450035095, -0.19810178875923157, 0.10223127901554108, 0.11037015169858932, -0.11453934758901596, 0.02630247175693512, 0.17508119344711304, 0.07542435079813004, 0.2778276205062866, 0.1521061509847641, -0.2090301662683487, -0.06697691977024078, -0.07389673590660095, 0.12960243225097656, 0.05235012248158455, 0.32770463824272156, -0.16224607825279236, -0.08480950444936752, -0.05376344919204712, 0.09097110480070114, -0.1246601864695549, 0.24059703946113586, -0.2453240603208542, 0.111237533390522, 0.21043704450130463, 0.09868688136339188, 0.0992874950170517, -0.12032999843358994, 0.1885295957326889, -0.02302938513457775, 0.3095250427722931, -0.10351746529340744, 0.31436020135879517, -0.033057522028684616, 0.035512734204530716, -0.23353999853134155, -0.11681389808654785, -0.16734839975833893, -0.048721302300691605, 0.22845777869224548, 0.006755490321666002, -0.11847081035375595, -0.03892401605844498, 0.15231503546237946, 0.1852128952741623, 0.2533760070800781, 0.011256646364927292, -0.08186706155538559, 0.12712834775447845, 0.09046079218387604, 0.12430985271930695, 0.12920252978801727, -0.05364551767706871, -0.012216736562550068, 0.22990532219409943, -0.10091263800859451, -0.09089502692222595, -0.207551509141922, -0.02819947525858879, -0.06523969769477844, 0.00680963508784771, 0.07375074923038483, -0.1669369339942932, 0.09479545056819916, 0.052090346813201904, 0.2555214762687683, -0.143564373254776, -0.3527412414550781, -0.14349988102912903, 0.42557311058044434, -0.2122347354888916, -0.19038045406341553, -0.40884169936180115, -0.20520024001598358, -0.03406278043985367, -0.1298040896654129, 0.0566629022359848, 0.3090008795261383, -0.018781468272209167, -0.08212771266698837, 0.03767535835504532, -0.0413130484521389, -0.2576492726802826, -0.12986083328723907, 0.18632732331752777, 0.18652716279029846, 0.1628214716911316, -0.24512715637683868, 0.0619194470345974, 0.07452896982431412, -0.28241369128227234, 0.012156147509813309, 0.16107191145420074, -0.10565352439880371, 0.061039071530103683, 0.2562239468097687, -0.11084476858377457, -0.1821274757385254, 0.009195970371365547, 0.11071840673685074, 0.03315960243344307, -0.003180878236889839, 0.1331561654806137, -0.008602738380432129, 0.1202474981546402, -0.36827513575553894, 0.06731969863176346, 0.1618332415819168, 0.12109559774398804, 0.36681899428367615, 0.5485631227493286, 0.27891257405281067, -0.34481146931648254, 0.04878014698624611, -0.2857145071029663, -0.3314041197299957, -0.08311276882886887, -0.1335359513759613, -0.17908352613449097, -0.03694474324584007, 0.39995622634887695, -0.2236207127571106, -0.5048118829727173, 0.46610933542251587, -0.10365546494722366, -0.25994744896888733, 0.15517553687095642, -0.053637322038412094, 0.04118111729621887, 0.10375341773033142, 0.15288938581943512, -0.20713619887828827, -0.1937042772769928, 0.01851889304816723, -0.09961467236280441, -0.09216305613517761, 0.09322351217269897, 0.2663425803184509, -0.05265297740697861, -0.1813081055879593, 0.2034498155117035, -0.17937999963760376, 0.02015048637986183, 0.29094967246055603, 0.31003308296203613, 0.3328077793121338, 0.12815506756305695, 0.1951947808265686, -0.25999897718429565, 0.04068491607904434, 0.1206139326095581, -0.26526156067848206, -0.12325430661439896, 0.08318696916103363, -0.18305955827236176, 0.2112552672624588, 0.1677507907152176, -0.12341456860303879, -0.19987690448760986, -0.02935919165611267, 0.13144631683826447, 0.15385985374450684, 0.2028273195028305, 0.11158503592014313, -0.04915737733244896, 0.18385641276836395, -0.002509450074285269, 0.06606645882129669, 0.18041160702705383, 0.09623119235038757, 0.0999007299542427, 0.14372530579566956, -0.04283548891544342, 0.2585480511188507, 0.1233527883887291, -0.41265979409217834, 0.042630385607481, 0.13210110366344452, 0.09469489008188248, -0.11649858951568604, -0.01861732266843319, 0.07794908434152603, -0.07175799459218979, -0.11396633088588715, 0.08775118738412857, 0.09531372785568237, 0.22130945324897766, -0.24611809849739075, -0.14978870749473572, -0.2396923005580902, 0.11888159066438675, 0.27983736991882324, 0.07066617906093597, 0.2530704438686371, -0.1780482828617096, 0.23415805399417877, -0.16368675231933594, -0.26321420073509216, 0.1916159838438034, -0.17657239735126495, 0.14301170408725739, 0.07774222642183304, -0.05716775730252266, 0.1597374826669693, 0.28462541103363037, -0.24210023880004883, 0.30934005975723267, 0.26584818959236145, 0.1608530730009079, -0.00031936290906742215, 0.004010586068034172, -0.03528102859854698, 0.0016415510326623917, 0.1339534968137741, -0.4808742105960846, -0.04617927595973015, 0.1270880550146103, 0.09197068959474564, 0.12992262840270996, 0.10892235487699509, -0.06617193669080734, -0.015614833682775497, -0.1283041387796402, 0.14281624555587769, -0.0620996356010437, -0.12844911217689514, 0.44257721304893494, 0.1537957638502121, 0.011115713976323605, 0.20869486033916473, -0.00930157769471407, 0.30272483825683594, -0.07220820337533951, 0.18286068737506866, -0.0061458395794034, 0.10638778656721115, -0.09193867444992065, 0.15360237658023834, -0.1002277135848999, 0.20762263238430023, 0.22310692071914673, -0.09821871668100357, 0.11316239088773727, 0.1258113980293274, -0.08934501558542252, 0.1160605326294899};
float b3_c1_bias[12] = {0.07491463422775269, -0.08209900557994843, 0.08588241040706635, 0.05955282598733902, -0.06354518979787827, 0.12690414488315582, 0.02935151942074299, 0.07039784640073776, 0.08665711432695389, 0.06597612798213959, -0.010360750369727612, 0.0008152167429216206};
float b3_c2_kernel[1*12*12] = {0.03737388923764229, 0.27969175577163696, 0.2580541968345642, -0.35387569665908813, -0.1419643610715866, -0.05469338595867157, 0.20081184804439545, 0.35749104619026184, -0.3874691128730774, 0.05214819312095642, 0.3498055934906006, -0.3129488527774811, 0.10603523254394531, -0.08250299841165543, -0.17068542540073395, -0.05690459907054901, -0.16801320016384125, -0.3121137022972107, 0.28625378012657166, -0.470562607049942, -0.09300727397203445, 0.3440849184989929, -0.013061409816145897, -0.14591455459594727, 0.37433335185050964, -0.27416032552719116, 0.2724980413913727, 0.3784256875514984, -0.1579354703426361, -0.06871551275253296, 0.3517032563686371, 0.19452150166034698, -0.4409724473953247, -0.40799927711486816, 0.16574303805828094, 0.08809438347816467, 0.0678921714425087, -0.18202640116214752, -0.13030703365802765, 0.01485461462289095, 0.4018517732620239, 0.28179389238357544, -0.07724674046039581, -0.10070466995239258, 0.5591728687286377, 0.42039451003074646, 0.15825054049491882, -0.11222439259290695, -0.011907005682587624, -0.3180849254131317, -0.17454732954502106, 0.4409365952014923, 0.2974989116191864, 0.4331236183643341, 0.1617872714996338, 0.12438149005174637, 0.13907529413700104, 0.7813925743103027, -0.27774158120155334, -0.5049643516540527, -0.08634887635707855, 0.3932434916496277, 0.26130977272987366, -0.39500799775123596, -0.23537158966064453, 0.13564813137054443, -0.33512139320373535, 0.32474470138549805, 0.0959467738866806, 0.29800114035606384, 0.0233369879424572, 0.3848816156387329, -0.07004792988300323, -0.054075829684734344, 0.09263763576745987, 0.357398122549057, 0.1430228352546692, -0.35098710656166077, -0.2597794532775879, 0.5659220218658447, -0.21477524936199188, -0.20424193143844604, 0.16812177002429962, -0.1350449174642563, 0.2612694203853607, -0.0031043977942317724, -0.2937145233154297, 0.15437248349189758, -0.3832336664199829, 0.1407119780778885, -0.4234919250011444, 0.05774974450469017, -0.17845739424228668, 0.42088064551353455, 0.01805436611175537, 0.4432315528392792, -0.4516967833042145, -0.19298163056373596, 0.4761984944343567, -0.5532369613647461, -0.21114687621593475, 0.27384743094444275, 0.1243719533085823, -0.40717172622680664, -0.473490446805954, -0.03184358403086662, 0.0675666406750679, 0.13554242253303528, -0.5917565226554871, 0.2617650032043457, 0.05812005326151848, -0.09628541767597198, 0.08508720248937607, -0.14432106912136078, -0.15968506038188934, 0.3803325891494751, 0.370515912771225, -0.12968891859054565, 0.014233647845685482, 0.2987622916698456, 0.4543342590332031, 0.2965517044067383, -0.32641980051994324, 0.4675428867340088, -0.3099992573261261, -0.33736464381217957, -0.07588793337345123, -0.29724815487861633, 0.5226820707321167, 0.34140947461128235, -0.18336330354213715, 0.2092185914516449, 0.41447579860687256, -0.18118539452552795, 0.2358003556728363, -0.20597422122955322, 0.3349124491214752, 0.25691142678260803, -0.39060670137405396, -0.3687388300895691, 0.583034098148346, -0.11548785865306854, -0.4569687843322754, 0.09054358303546906};
float b3_c2_bias[12] = {-0.04046528786420822, 0.07764323800802231, 0.0013205436989665031, -0.08232840150594711, 0.00795237347483635, 0.07309746742248535, -0.0014658794971182942, 0.05454565957188606, 0.05898723378777504, 0.0964469313621521, 0.0800011157989502, -0.022478625178337097};
Block block3(4, // kernel_size
             8, 12, // in_d, out_d
             b3_c1_kernel, b3_c1_bias, b3_c2_kernel, b3_c2_bias);

float layer0_cache_buffer[4*4*4];
RollingCache layer0_cache(
  4, // depth
  4, // dilation
  4, // kernel size
  layer0_cache_buffer
);

float layer1_cache_buffer[8*16*4];
RollingCache layer1_cache(
  8, // depth
  16, // dilation
  4, // kernel size
  layer1_cache_buffer
);

float layer2_cache_buffer[8*64*4];
RollingCache layer2_cache(
  8, // depth
  64, // dilation
  4, // kernel size
  layer2_cache_buffer
);

float classifier_weights[12*2] = {0.03090769238770008, 0.10685596615076065, -0.30100831389427185, 0.12851747870445251, 0.3738153874874115, 0.4810335338115692, -0.21638496220111847, -0.0824984535574913, -0.41732051968574524, -0.6548447608947754, 0.7248169779777527, 0.012619427405297756, -0.17807237803936005, 0.14264509081840515, -0.5925790071487427, 0.09860650449991226, 0.2645081579685211, -0.4286942780017853, 0.4073076546192169, -0.2537709176540375, -0.025679726153612137, 0.3613399565219879, -0.3248305320739746, 0.5852012038230896};
float classifier_biases[2] = {0.01228871289640665, -0.026679305359721184};
Classifier classifier(
  12, // input_dim
  2, // output_dim
  classifier_weights,
  classifier_biases
);
