#pragma once
#include "left_shift_buffer.h"
#include "block.h"
#include "rolling_cache.h"
#include "regression.h"

LeftShiftBuffer left_shift_input_buffer(
    4,   // kernel size
    3);  // feature depth

float b0_c1_kernel[4*3*4] = {0.42212867736816406, -0.2019125074148178, 0.255466103553772, 0.049343500286340714, -0.340615838766098, 0.3873554468154907, -0.06149628385901451, 0.1790589839220047, -0.28831636905670166, -0.253182590007782, 0.28098246455192566, 0.042617496103048325, -0.11287489533424377, 0.14911657571792603, 0.046379417181015015, -0.14590008556842804, 0.36280229687690735, 0.4922948479652405, -0.22367450594902039, 0.2395150512456894, 0.4727940857410431, 0.18421506881713867, -0.0739625096321106, 0.11781857907772064, -0.40023890137672424, 0.31118345260620117, -0.17214415967464447, 0.08350493013858795, 0.058889251202344894, 0.2056615948677063, -0.366051584482193, 0.41902783513069153, 0.05627055466175079, -0.4312123656272888, 0.010297376662492752, -0.059851910918951035, 0.4776313006877899, 0.5167010426521301, -0.5133410096168518, 0.4278734028339386, 0.26975002884864807, -0.003652342827990651, 0.08126728236675262, 0.21003107726573944, 0.20168356597423553, 0.2529166042804718, 0.2102273404598236, 0.2956600487232208};
float b0_c1_bias[4] = {-0.11212310194969177, -0.02893723174929619, 0.20386596024036407, -0.05200282111763954};
float b0_c2_kernel[1*4*4] = {0.3096913695335388, -0.542153000831604, 0.24986258149147034, -0.18479706346988678, -0.009854268282651901, 0.37285614013671875, -0.06498012691736221, 1.0287015438079834, -0.4801475703716278, 0.8917747735977173, 0.1653934121131897, 0.45212212204933167, -0.839012622833252, -0.6318618059158325, 1.0114755630493164, 0.27115872502326965};
float b0_c2_bias[4] = {0.11011983454227448, 0.19961249828338623, 0.19734328985214233, -0.16284041106700897};
Block block0(4, // kernel_size
             3, 4, // in_d, out_d
             b0_c1_kernel, b0_c1_bias, b0_c2_kernel, b0_c2_bias);

float b1_c1_kernel[4*4*8] = {0.04972167685627937, -0.2673868238925934, -0.02540978416800499, 0.19490909576416016, -0.1385439783334732, -0.31320542097091675, -0.19512557983398438, 0.3287627398967743, 0.21621541678905487, 0.09635179489850998, -0.28589707612991333, -0.08921613544225693, -0.04635186865925789, 0.25014346837997437, -0.022249311208724976, -0.2640029489994049, -0.026705756783485413, -0.07450398057699203, 0.36301133036613464, -0.046022139489650726, -0.2781166732311249, 0.3542190194129944, -0.1534084528684616, 0.1536499559879303, -0.288536012172699, 0.386148065328598, -0.2305152714252472, -0.03184664249420166, -0.29884371161460876, 0.2811979651451111, -0.059698909521102905, -0.4366679787635803, -0.1991243213415146, -0.5841522216796875, 0.30027467012405396, 0.12543722987174988, 0.3524414896965027, -0.13651496171951294, 0.141720712184906, 0.2470998913049698, 0.3934001326560974, -0.05098215863108635, -0.09136958420276642, -0.16019678115844727, -0.212990403175354, 0.15271373093128204, -0.21581318974494934, 0.1409732699394226, -0.2827957272529602, 0.041243843734264374, 0.2947945296764374, 0.3171525001525879, 0.3060857355594635, 0.20087799429893494, -0.34477242827415466, -0.335816890001297, -0.49191612005233765, 0.17319035530090332, 0.27786511182785034, 0.30195432901382446, 0.2565174698829651, 0.5024002194404602, -0.3511725962162018, -0.6005361080169678, -0.033998940140008926, -0.20731735229492188, 0.2235800325870514, 0.3487747311592102, -0.09255138039588928, 0.046777889132499695, -0.1692655384540558, 0.1389876753091812, 0.4745168089866638, 0.4030933380126953, -0.11463134735822678, -0.47505876421928406, -0.6192423701286316, 0.44705814123153687, 0.09247592091560364, -0.0590892992913723, 0.26326215267181396, -0.27164319157600403, 0.3779538571834564, 0.21663443744182587, 0.3905477523803711, -0.11615276336669922, -0.27664339542388916, 0.007319417782127857, -0.313108891248703, -0.1908343881368637, 0.11566343903541565, -0.28255757689476013, 0.17747943103313446, 0.06127990782260895, 0.10144340991973877, -0.23253899812698364, 0.381878525018692, -0.18976664543151855, 0.34288856387138367, 0.4293380677700043, 0.35074618458747864, -0.5575611591339111, -0.30570846796035767, -0.14868228137493134, -0.15939173102378845, 0.3147487938404083, 0.076988086104393, -0.3219992220401764, -0.6540423035621643, 0.3318980038166046, -0.16525155305862427, 0.27396124601364136, -0.16484087705612183, -0.16657741367816925, -0.1267247498035431, 0.29723143577575684, 0.5284091830253601, 0.21125423908233643, -0.2480773627758026, 0.1440105140209198, 0.16180381178855896, -0.6416831612586975, -0.3871656656265259, 0.00966760702431202, 0.20768196880817413, 0.2524920105934143, -0.2718946933746338, -0.19291353225708008};
float b1_c1_bias[8] = {0.11969621479511261, 0.025735676288604736, 0.08947660773992538, 0.21233895421028137, 0.1319819986820221, -0.09674637764692307, 0.0, 0.18938857316970825};
float b1_c2_kernel[1*8*8] = {-0.44376054406166077, -0.4073140025138855, -0.06347525119781494, 0.4679402709007263, 0.6104226112365723, 0.3258598744869232, 0.7548292279243469, 0.1772773712873459, -0.20337581634521484, -0.21220164000988007, -0.34554722905158997, -0.2756345868110657, -0.7084600329399109, 0.5137051343917847, -0.3073570430278778, 0.5011504292488098, -0.6809080839157104, 0.41637787222862244, -0.06671804189682007, 0.45577511191368103, 0.30967065691947937, -0.0922069102525711, 0.5247544646263123, 0.533796489238739, -0.4739088714122772, -0.17774689197540283, -0.5444132089614868, 0.3407260477542877, -0.5829846262931824, 0.5730836391448975, 0.5095894932746887, 0.3396183252334595, -0.4153508245944977, -0.7628349661827087, -0.5904406309127808, -0.4021976590156555, -0.4392177164554596, 0.03178084269165993, 0.5593354105949402, 0.20913530886173248, 0.6321462988853455, -0.06879782676696777, -0.31613823771476746, -0.5309901833534241, 0.5692983865737915, -0.4503982365131378, 0.2154230922460556, -0.19207872450351715, 0.48910313844680786, 0.5843395590782166, 0.5296838879585266, -0.03199130296707153, -0.3634238839149475, -0.1027669906616211, 0.4120721220970154, 0.3569684624671936, -0.9124069809913635, -0.11880467087030411, -0.47427523136138916, 0.587179958820343, 0.4610312581062317, -0.33686453104019165, 0.18102556467056274, -0.006456444039940834};
float b1_c2_bias[8] = {0.1667690873146057, 0.11314447224140167, 0.0, 0.19613349437713623, -0.08899896591901779, 0.14677563309669495, 0.02585323341190815, 0.23548081517219543};
Block block1(4, // kernel_size
             4, 8, // in_d, out_d
             b1_c1_kernel, b1_c1_bias, b1_c2_kernel, b1_c2_bias);

float b2_c1_kernel[4*8*8] = {-0.3380201458930969, -0.06875558942556381, -0.4677838981151581, -0.20099784433841705, -0.010496866889297962, 0.18184305727481842, 0.33572661876678467, -0.5883182883262634, 0.19850589334964752, 0.6097308397293091, 0.033482860773801804, 0.14681504666805267, -0.10532598197460175, -0.008553138934075832, -0.1862746626138687, 0.13912075757980347, -0.2230226993560791, -0.16725696623325348, -0.1833294779062271, 0.244635671377182, 0.14975926280021667, 0.0871032178401947, 0.17350062727928162, -0.19079741835594177, -0.20641672611236572, -0.221409410238266, -0.28814029693603516, -0.18901562690734863, -0.01480943989008665, 0.05195465683937073, -0.20551109313964844, 0.41744479537010193, -0.14217662811279297, 0.2668863534927368, -0.2518446743488312, 0.2660302221775055, -0.2978338897228241, 0.3721234202384949, -0.11734295636415482, -0.3354088068008423, -0.033753156661987305, -0.26012927293777466, 0.2537013590335846, -0.07201829552650452, 0.07398536056280136, -0.050950732082128525, -0.3611876964569092, 0.07507216930389404, -0.02735251747071743, 0.125972181558609, 0.2593642771244049, 0.131266251206398, 0.2806071639060974, 0.31124913692474365, 0.35591939091682434, 0.10204073041677475, 0.10035847127437592, 0.26657944917678833, -0.08602466434240341, 0.20944783091545105, 0.07351591438055038, 0.17453671991825104, 0.18522189557552338, -0.2470913529396057, -0.3212294280529022, -0.2709655165672302, 0.016071535646915436, -0.2424287647008896, 0.07412303239107132, -0.08224375545978546, 0.24549032747745514, -0.06462589651346207, -0.3248103857040405, -0.3704679012298584, 0.002083350205793977, -0.28776612877845764, 0.11732237786054611, -0.10846880823373795, 0.044539306312799454, 0.11944140493869781, 0.2140398919582367, -0.01550436019897461, 0.09051695466041565, 0.0971183180809021, -0.10392466187477112, 0.022082358598709106, 0.1515493094921112, 0.09958761930465698, 0.08998532593250275, -0.24748492240905762, 0.08363203704357147, -0.05625826120376587, 0.3528503179550171, 0.24335727095603943, 0.16920728981494904, 0.3242281675338745, 0.26861822605133057, 0.16302458941936493, -0.0750969871878624, -0.013565567322075367, -0.11660449951887131, -0.23443154990673065, -0.09928902238607407, 0.23662588000297546, -0.6766892075538635, -0.5089889168739319, -0.21306045353412628, -0.315250426530838, 0.2732333242893219, 0.2652686834335327, 0.06960560381412506, 0.07666578143835068, -0.13887475430965424, 0.23016750812530518, 0.058061886578798294, 0.25022298097610474, 0.1423153579235077, 0.05629964917898178, -0.2567140758037567, -0.2378556877374649, 0.14016707241535187, 0.1100187823176384, 0.17422336339950562, 0.2888357639312744, -0.2986087501049042, 0.0036737178452312946, -0.4477718472480774, 0.3487934470176697, -0.5311791896820068, -0.023241909220814705, -0.64792400598526, 0.09152299165725708, -0.13123461604118347, 0.2086980789899826, 0.1449926793575287, -0.15218181908130646, 0.11253836005926132, -0.32751673460006714, 0.10575642436742783, -0.12725022435188293, 0.4216448664665222, 0.09638682007789612, 0.5649824142456055, 0.07793398201465607, -0.03610801696777344, -0.2630784809589386, -0.13719229400157928, -0.1307394951581955, 0.03633818030357361, 0.17344215512275696, 0.1936308741569519, -0.30319803953170776, -0.43658363819122314, 0.17146456241607666, -0.12838950753211975, -0.06501013040542603, 0.3297995328903198, 0.3067871928215027, -0.022205350920557976, 0.07637423276901245, 0.024556320160627365, -0.17932994663715363, -0.1279313564300537, -0.047592002898454666, 0.1124313697218895, 0.21759361028671265, 0.20754697918891907, 0.17718380689620972, 0.3495841920375824, 0.4901849925518036, -0.04539434611797333, 0.0742979422211647, 0.3145594894886017, 0.13925424218177795, 0.1419256329536438, -0.14030276238918304, 0.2659584879875183, 0.0933755487203598, -0.06856510043144226, 0.1649543046951294, 0.12021899223327637, -0.3344627916812897, -0.038752492517232895, 0.14045211672782898, -0.03037695586681366, -0.10444822162389755, 0.06357565522193909, 0.36303451657295227, -0.2789019048213959, -0.292304128408432, 0.1534561663866043, 0.14075647294521332, 0.1899365335702896, 0.15409968793392181, 0.2627738118171692, -0.13690897822380066, -0.13532327115535736, 0.3777170479297638, -0.057394806295633316, -0.1800479143857956, -0.2808363735675812, -0.6242188215255737, -0.7084062695503235, -0.35430672764778137, 0.49609529972076416, -0.44421449303627014, 0.24945266544818878, -0.30417323112487793, 0.09356996417045593, 0.11674866080284119, -0.10316655039787292, 0.08607327938079834, 0.0994829535484314, -0.24447870254516602, 0.30256888270378113, 0.09973573684692383, -0.34831055998802185, 0.2067510038614273, -0.048043616116046906, 0.03927882760763168, -0.004024307709187269, -0.35227230191230774, 0.03997617959976196, -0.21311409771442413, -0.22292526066303253, -0.21901656687259674, -0.5301063656806946, -0.21338413655757904, 0.2688465714454651, -0.5450437664985657, 0.27363064885139465, -0.07723317295312881, 0.5370435118675232, -0.0890149250626564, -0.1602812260389328, 0.31074759364128113, -0.1858576238155365, -0.006539095658808947, -0.5345461964607239, 0.10644761472940445, 0.2246140092611313, -0.08778461068868637, 0.25236234068870544, 0.23801766335964203, 0.05161276087164879, 0.25265008211135864, 0.28083473443984985, -0.38567203283309937, -0.13836926221847534, 0.1952097862958908, 0.16011594235897064, 0.3544340133666992, -0.2709733247756958, -0.334280788898468, 0.07624529302120209, 0.08907957375049591};
float b2_c1_bias[8] = {-0.03332110866904259, -0.15808583796024323, 0.05652390792965889, 0.12954899668693542, -0.03357196971774101, 0.02137237787246704, -0.06865512579679489, 0.006969013717025518};
float b2_c2_kernel[1*8*8] = {-0.15638822317123413, -0.34699657559394836, -0.4988378584384918, 0.3219359815120697, 0.30681079626083374, -0.04490705579519272, -0.6491333842277527, 0.4835220277309418, 0.013210958801209927, -0.6602606773376465, -0.2913030683994293, 0.3807741701602936, 0.5034281015396118, 0.36450374126434326, -0.5450790524482727, 0.39863449335098267, -0.8800756931304932, -0.20117460191249847, -0.40658828616142273, 0.17806488275527954, 0.5215149521827698, 0.12803605198860168, 0.4995206296443939, 0.4841313660144806, -0.08901466429233551, -0.24502511322498322, -0.11021022498607635, 0.37410128116607666, -0.15757353603839874, 0.6239228248596191, 0.23810464143753052, 0.4894344210624695, -0.4213818609714508, -0.5122653841972351, 0.5810719132423401, 0.0883648693561554, -0.4745387136936188, 0.13381727039813995, -0.21352329850196838, -0.7389733791351318, 0.014701908454298973, 0.5114091038703918, 0.3246915638446808, 0.37733519077301025, 0.24745219945907593, -0.20762953162193298, -0.7168790102005005, 0.45395544171333313, 0.30141782760620117, 0.02589939907193184, 0.33856239914894104, -0.5572780966758728, 0.46655184030532837, -0.23545284569263458, -0.2601163387298584, -0.3297595977783203, -0.46383631229400635, -0.3858644664287567, -0.7454425692558289, 0.158494770526886, -0.030758580192923546, -0.043212197721004486, 0.19371221959590912, 0.4090735614299774};
float b2_c2_bias[8] = {0.07612182945013046, 0.09990956634283066, 0.1309249848127365, 0.0714583769440651, -0.045592911541461945, 0.0593741312623024, 0.18715669214725494, 0.0937761664390564};
Block block2(4, // kernel_size
             8, 8, // in_d, out_d
             b2_c1_kernel, b2_c1_bias, b2_c2_kernel, b2_c2_bias);

float b3_c1_kernel[4*8*8] = {0.4323641061782837, -0.13592220842838287, -0.05957156792283058, -0.24550819396972656, -0.2646174728870392, -0.1994185596704483, 0.23743917047977448, -0.030177460983395576, 0.2879745662212372, 0.05638943612575531, -0.43693116307258606, -0.14103920757770538, -0.16381509602069855, -0.14745791256427765, -0.07556776702404022, 0.15308235585689545, 0.20905236899852753, 0.05971294641494751, -0.10565820336341858, 0.06865336745977402, 0.3403198719024658, -0.04928012937307358, 0.3636420667171478, 0.174930602312088, 0.1278332769870758, 0.012873491272330284, -0.08503732085227966, 0.06743817031383514, 0.09813118726015091, -0.2304283082485199, 0.06083974242210388, 0.05644781142473221, -0.29580506682395935, -0.262663871049881, 0.22188879549503326, 0.018224868923425674, -0.10336717218160629, 0.25533169507980347, -0.20831966400146484, -0.237650528550148, 0.1843356192111969, 0.1449478715658188, 0.13379861414432526, -0.15301759541034698, 0.05003482103347778, -0.18675552308559418, -0.02838137373328209, -0.20595864951610565, 0.17671716213226318, -0.37677621841430664, -0.08939378708600998, -0.1352623552083969, -0.03139074519276619, 0.03927090764045715, -0.3822292387485504, -0.3211088478565216, 0.1450718641281128, -0.01614973321557045, 0.021179236471652985, 0.007390692364424467, -0.05141255632042885, -0.28822746872901917, 0.13911601901054382, -2.001265784201678e-05, -0.108705535531044, 0.3744265139102936, -0.32635754346847534, -0.21945838630199432, 0.27640342712402344, 0.10720449686050415, -0.09752973169088364, 0.2070537656545639, -0.14834356307983398, -0.12704956531524658, -0.07308655977249146, 0.10166683793067932, -0.004340868443250656, -0.058856651186943054, 0.7142542600631714, -0.05129619315266609, -0.10669966042041779, -0.3722755014896393, -0.09991585463285446, 0.0988435298204422, 0.12007611244916916, 0.06585778295993805, 0.09484270960092545, 0.5015532374382019, 0.28039687871932983, -0.20041003823280334, -0.030489670112729073, -0.20705124735832214, -0.04241184890270233, -0.0011400043731555343, -0.09866482019424438, -0.1253218948841095, -0.17671850323677063, -0.35252994298934937, -0.04311089590191841, -0.20844367146492004, 0.1646212488412857, -0.17585645616054535, -0.16946600377559662, -0.267487108707428, -0.16279453039169312, -0.19913113117218018, 0.12582026422023773, -0.05102721229195595, 0.21637187898159027, 0.06154017895460129, -0.1740484982728958, -0.020831098780035973, 0.3510657250881195, -0.23035837709903717, 0.2446092665195465, -0.12561167776584625, -0.1935025155544281, 0.16064873337745667, -0.5152187943458557, -0.189817413687706, -0.07066234201192856, -0.08109994232654572, -0.06813857704401016, 0.10021310299634933, -0.15839968621730804, -0.24523058533668518, -0.10730133205652237, -0.3432956635951996, -0.391602098941803, 0.1292087584733963, -0.009612669236958027, 0.440126895904541, -0.22975295782089233, 0.10229998826980591, 0.23109543323516846, 0.4888763427734375, 0.38264042139053345, 0.05205755680799484, 0.27798646688461304, 0.2947700023651123, -0.010490844026207924, 0.29427996277809143, -0.39844149351119995, -0.10179610550403595, 0.2878146469593048, 0.2743057608604431, 0.24489304423332214, -0.2170952409505844, -0.019325166940689087, -0.17265069484710693, -0.19819346070289612, 0.07482678443193436, 0.2833806872367859, -0.17554083466529846, 0.20044419169425964, 0.10286814719438553, 0.09744049608707428, -0.23595988750457764, -0.1697712540626526, 0.07376887649297714, -0.06777060776948929, -0.08211124688386917, 0.17374886572360992, 0.060602445155382156, 0.15854576230049133, -0.26519784331321716, -0.09491118043661118, -0.18638230860233307, 0.1795773059129715, 0.16903239488601685, 0.22281068563461304, 0.24271903932094574, -0.14655715227127075, -0.2695324718952179, -0.0659661665558815, -0.044020868837833405, -0.459318608045578, 0.1101747676730156, -0.04449576511979103, -0.24617546796798706, 0.03717230632901192, 0.05495825409889221, -0.0030902980361133814, 0.21169652044773102, 0.04075460508465767, 0.1825849562883377, -0.008777942508459091, 0.07804058492183685, 0.14753392338752747, 0.28706398606300354, 0.11300904303789139, -0.008696169592440128, -0.06840390712022781, -0.1515333503484726, 0.024427564814686775, 0.015932809561491013, 0.24926158785820007, -0.052081406116485596, 0.036636848002672195, -0.09762035310268402, 0.052131641656160355, 0.21793733537197113, 0.1748279184103012, -0.19199156761169434, -0.10708724707365036, 0.10242244601249695, 0.33993780612945557, -0.25198426842689514, 0.22181491553783417, -0.2862810492515564, 0.15481770038604736, -0.1852235198020935, -0.1889575719833374, 0.16000820696353912, 0.07540679723024368, -0.361023873090744, 0.06091209128499031, 0.23142743110656738, -0.08336382359266281, -0.06595494598150253, 0.2203112095594406, 0.16926603019237518, 0.060036566108465195, 0.47360315918922424, 0.05312716215848923, 0.21129369735717773, -0.1644624024629593, 0.11254634708166122, -0.2031649798154831, 0.052457135170698166, 0.265068918466568, -0.022094713523983955, 0.07798492163419724, 0.29669666290283203, 0.23552078008651733, -0.12093252688646317, -0.01578724943101406, 0.21489568054676056, 0.2220507115125656, 0.26241883635520935, -0.28636690974235535, -0.24899151921272278, 0.20473898947238922, -0.0344063974916935, -0.1800336092710495, 0.10198044776916504, 0.06728274375200272, -0.5214122533798218, -0.14540286362171173, 0.21771268546581268, -0.18202869594097137, 0.3744402825832367, -0.29217833280563354, -0.2939853072166443, 0.304057240486145, 0.32433611154556274};
float b3_c1_bias[8] = {-0.08035968244075775, 0.06966138631105423, 0.050617996603250504, 0.02950901724398136, 0.05785099416971207, -0.003783570136874914, -0.003838954260572791, 0.07619199901819229};
float b3_c2_kernel[1*8*8] = {-0.29168274998664856, 0.7085102796554565, 0.3266274631023407, -0.11373613029718399, -0.27046293020248413, -0.2842065393924713, -0.15920458734035492, -0.35579195618629456, -0.27593058347702026, 0.2503937780857086, 0.02358892187476158, 0.0011793585726991296, 0.4897852838039398, 0.28325510025024414, 0.5529659986495972, 0.6580769419670105, 0.709689199924469, 0.32286933064460754, 0.24851541221141815, 0.5325202345848083, -0.1086900383234024, 0.6692467927932739, 0.48168498277664185, -0.09646958112716675, -0.44746267795562744, 0.6961337924003601, -0.5645288228988647, -0.1984199434518814, -0.13334748148918152, -0.6247667670249939, -0.6403093338012695, -0.06405504047870636, 0.20515377819538116, -0.16177216172218323, 0.30497151613235474, 0.20729590952396393, 0.43253427743911743, 0.21756073832511902, 0.3139495849609375, -0.9834266901016235, -0.2606518864631653, 0.3790076971054077, 0.0529383160173893, -0.15514004230499268, 0.1315116286277771, 0.3263510465621948, 0.28410038352012634, 0.5415149927139282, 0.29525426030158997, 0.16006210446357727, -0.5335497856140137, -0.48601245880126953, -0.2593784034252167, -0.21049247682094574, 0.7565831542015076, 0.14120927453041077, -1.0162910223007202, 0.3890627920627594, -0.7965102195739746, -0.3827874958515167, 0.2867080569267273, -1.0757237672805786, -0.1597842574119568, -0.5001772046089172};
float b3_c2_bias[8] = {0.13717369735240936, 0.24187904596328735, 0.08083103597164154, -0.03783591836690903, 0.2156430184841156, 0.08421381562948227, -0.22666649520397186, 0.21427689492702484};
Block block3(4, // kernel_size
             8, 8, // in_d, out_d
             b3_c1_kernel, b3_c1_bias, b3_c2_kernel, b3_c2_bias);

float layer0_cache_buffer[4*4*4];
RollingCache layer0_cache(
  4, // depth
  4, // dilation
  4, // kernel size
  layer0_cache_buffer
);

float layer1_cache_buffer[8*16*4];
RollingCache layer1_cache(
  8, // depth
  16, // dilation
  4, // kernel size
  layer1_cache_buffer
);

float layer2_cache_buffer[8*64*4];
RollingCache layer2_cache(
  8, // depth
  64, // dilation
  4, // kernel size
  layer2_cache_buffer
);

float regression_weights[8*1] = {0.9182196259498596, -0.20779570937156677, 1.1392040252685547, 0.7897021174430847, -0.8478359580039978, 0.491497278213501, 0.6364564299583435, -0.3721452057361603};
float regression_biases[1] = {-0.21785153448581696};
Regression regression(
  8, // input_dim
  1, // output_dim
  regression_weights,
  regression_biases
);
