#pragma once
#include "left_shift_buffer.h"
#include "block.h"
#include "rolling_cache.h"
#include "classifier.h"

LeftShiftBuffer left_shift_input_buffer(
    4,   // kernel size
    1);  // feature depth

float b0_c1_kernel[4*1*4] = {-0.4562022089958191, 0.11508065462112427, 0.12301725149154663, 0.14307880401611328, 0.3496534824371338, 0.08584481477737427, 0.19178825616836548, 0.4206821918487549, 0.12081420421600342, 0.4525742530822754, 0.2879660129547119, 0.07361018657684326, 0.38850659132003784, 0.08052831888198853, -0.2699827253818512, 0.3822970390319824};
float b0_c1_bias[4] = {0.0, 0.0, 0.0, 0.0};
float b0_c2_kernel[1*4*4] = {0.39010089635849, 0.09601575136184692, -0.00029712915420532227, 0.41088443994522095, 0.6129555106163025, 0.5111709237098694, 0.7341061234474182, 0.40472275018692017, 0.18822461366653442, 0.8030124306678772, 0.25229352712631226, -0.1740683913230896, -0.402574747800827, 0.21641606092453003, 0.16088074445724487, -0.31153905391693115};
float b0_c2_bias[4] = {0.0, 0.0, 0.0, 0.0};
Block block0(4, // kernel_size
             1, 4, // in_d, out_d
             b0_c1_kernel, b0_c1_bias, b0_c2_kernel, b0_c2_bias);

float b1_c1_kernel[4*4*8] = {-0.26234397292137146, -0.24102585017681122, -0.0876559317111969, -0.3219178020954132, -0.019945412874221802, 0.11640328168869019, -0.01815164089202881, -0.07068109512329102, -0.09062853455543518, -0.10709354281425476, 0.16220709681510925, 0.17677190899848938, -0.19948406517505646, -0.13351936638355255, 0.10191410779953003, -0.26014021039009094, 0.2214738428592682, -0.25991708040237427, -0.3265532851219177, 0.20890304446220398, -0.08726978302001953, -0.2661699056625366, 0.3389231860637665, -0.25968030095100403, 0.25519731640815735, 0.2835378348827362, -0.25509902834892273, 0.3303050100803375, -0.016424447298049927, -0.15210789442062378, 0.15372255444526672, -0.3035268485546112, -0.28142091631889343, -0.27986207604408264, 0.26095518469810486, -0.13215135037899017, -0.27076584100723267, -0.12144690752029419, 0.20436838269233704, 0.04233372211456299, 0.3425017297267914, 0.33633318543434143, -0.10679109394550323, -0.2531103491783142, 0.19314363598823547, -0.21575738489627838, -0.003209739923477173, 0.16120925545692444, -0.15660327672958374, -0.17447125911712646, 0.28961238265037537, -0.3186701238155365, -0.175214484333992, -0.025450974702835083, -0.34817686676979065, -0.1141200065612793, 0.08606907725334167, 0.18309339880943298, 0.17090824246406555, -0.31776219606399536, 0.23830434679985046, -0.14109963178634644, -0.006302475929260254, 0.30293551087379456, 0.23489519953727722, -0.023594975471496582, -0.19914411008358002, -0.17542791366577148, -0.1473548263311386, -0.05897608399391174, -0.03377276659011841, -0.34884902834892273, 0.2870132029056549, 0.07240796089172363, -0.34917744994163513, -0.07590612769126892, -0.13931892812252045, 0.03190726041793823, 0.267347127199173, -0.2965780198574066, -0.06818348169326782, 0.08249494433403015, -0.15096049010753632, -0.03539222478866577, 0.2287825047969818, -0.0902428925037384, 0.07445520162582397, 0.30931589007377625, 0.0048507750034332275, 0.05692404508590698, -0.26983195543289185, -0.01747778058052063, 0.17522814869880676, 0.07762083411216736, 0.22751036286354065, 0.05380457639694214, -0.3369326889514923, 0.016757845878601074, 0.12558242678642273, -0.24903106689453125, -0.03182440996170044, 0.12111157178878784, -0.0729479193687439, 0.1847986876964569, -0.11133426427841187, 0.15675464272499084, 0.0963347852230072, 0.19283321499824524, 0.17298784852027893, 0.27022603154182434, -0.09075716137886047, 0.08409222960472107, -0.141002357006073, 0.08239439129829407, 0.1712258756160736, -0.2578340172767639, -0.2040010243654251, -0.1105598658323288, -0.011315584182739258, -0.11261621117591858, 0.2687642276287079, 0.3309067189693451, -0.2774873375892639, 0.34556344151496887, -0.2115861177444458, -0.0665256679058075, 0.285600870847702, -0.10922271013259888};
float b1_c1_bias[8] = {0.0, 0.0, 0.0, 0.0, 0.0, 0.0, 0.0, 0.0};
float b1_c2_kernel[1*8*8] = {0.40403467416763306, 0.2185097336769104, -0.09702229499816895, 0.44404512643814087, 0.35371333360671997, 0.5775057673454285, -0.2308582067489624, 0.5834563374519348, 0.15999925136566162, 0.26920491456985474, -0.4868796467781067, -0.11156868934631348, 0.15728014707565308, 0.3594536781311035, 0.4904816746711731, -0.334931343793869, -0.5112026929855347, -0.37137728929519653, -0.2258293330669403, 0.20887130498886108, 0.4510638117790222, -0.5908681154251099, 0.35275983810424805, -0.523439347743988, 0.18279659748077393, -0.370002806186676, -0.6043498516082764, -0.14159861207008362, 0.5423492789268494, 0.4671160578727722, -0.6022579669952393, -0.40437188744544983, -0.3916943073272705, 0.5685238242149353, -0.5706419944763184, -0.6013223528862, 0.5358344912528992, 0.05406695604324341, 0.21477997303009033, -0.15647873282432556, 0.20403242111206055, 0.13795673847198486, 0.15098488330841064, 0.1944366693496704, -0.45569750666618347, 0.31059151887893677, -0.21560007333755493, 0.46183568239212036, -0.2829919159412384, -0.08383899927139282, -0.28590449690818787, -0.0524255633354187, -0.46847930550575256, -0.20099836587905884, -0.20307552814483643, -0.40262335538864136, 0.44917064905166626, 0.07319128513336182, -0.5447627902030945, 0.09420448541641235, 0.29952436685562134, 0.6031861901283264, 0.3058488368988037, 0.4678073525428772};
float b1_c2_bias[8] = {0.0, 0.0, 0.0, 0.0, 0.0, 0.0, 0.0, 0.0};
Block block1(4, // kernel_size
             4, 8, // in_d, out_d
             b1_c1_kernel, b1_c1_bias, b1_c2_kernel, b1_c2_bias);

float b2_c1_kernel[4*8*8] = {0.1694549322128296, 0.08006066083908081, 0.19170218706130981, -0.26738202571868896, -0.11728981137275696, -0.29294949769973755, 0.02293097972869873, 0.15369004011154175, 0.008804738521575928, 0.06389120221138, 0.016619354486465454, -0.14453300833702087, -0.2383590042591095, 0.07343295216560364, 0.17270439863204956, -0.16501131653785706, -0.17738665640354156, 0.2924640476703644, -0.29417362809181213, -0.28185415267944336, 0.1541920006275177, 0.27130404114723206, 0.2639634311199188, -0.13079270720481873, -0.03229948878288269, -0.27104225754737854, -0.12888476252555847, -0.23726704716682434, 0.02064722776412964, -0.02296149730682373, 0.1599949598312378, 0.13395464420318604, -0.24120207130908966, -0.05540129542350769, 0.2949574291706085, -0.03511703014373779, -0.2280505895614624, 0.20059630274772644, -0.23254713416099548, 0.06134390830993652, 0.2960909903049469, 0.08752977848052979, 0.050881922245025635, 0.18370923399925232, 0.23010382056236267, -0.17629902064800262, -0.15806196630001068, -0.23389726877212524, -0.1894463300704956, -0.029450595378875732, -0.2608041763305664, 0.08550569415092468, -0.04272836446762085, -0.08054457604885101, -0.2289915680885315, 0.2188689410686493, -0.1836433708667755, 0.08458909392356873, 0.04512891173362732, 0.1945500671863556, -0.006661951541900635, 0.2635035216808319, 0.18671700358390808, -0.1492438018321991, -0.005358099937438965, -0.14372722804546356, 0.01823669672012329, -0.023493081331253052, -0.17395132780075073, 0.29757335782051086, 0.2499580681324005, 0.05387064814567566, -0.16163519024848938, -0.21759524941444397, 0.10471540689468384, -0.14250190556049347, -0.23046180605888367, 0.16532054543495178, -0.10622140765190125, 0.27174946665763855, 0.26900729537010193, -0.1941012144088745, -0.009742438793182373, 0.1738763451576233, 0.1168563961982727, 0.20202717185020447, -0.17321182787418365, -0.1830495297908783, 0.11891910433769226, 0.2942951023578644, 0.24133345484733582, 0.027573883533477783, 0.15902265906333923, -0.20649121701717377, -0.07375611364841461, -0.0015482604503631592, 0.24172702431678772, 0.2065301239490509, 0.18315324187278748, 0.2374430000782013, -0.2511204183101654, -0.17832697927951813, 0.26328805088996887, -0.016362696886062622, 0.26496437191963196, 0.09252357482910156, -0.25683608651161194, 0.18732020258903503, 0.03605121374130249, 0.2905769646167755, 0.2956593334674835, -0.18833687901496887, 0.2100696861743927, 0.06010165810585022, -0.29384446144104004, 0.08855339884757996, 0.10040894150733948, 0.13689935207366943, 0.24335148930549622, -0.27395257353782654, -0.11780300736427307, -0.1542084962129593, 0.14658936858177185, -0.22669373452663422, 0.07211965322494507, -0.06594324111938477, 0.25773027539253235, 0.07273688912391663, -0.08682473003864288, -0.06885464489459991, 0.03623911738395691, 0.24053069949150085, -0.03106856346130371, 0.28438499569892883, 0.020690739154815674, -0.20319846272468567, -0.2937834560871124, 0.07336002588272095, -0.2295757234096527, 0.28719231486320496, -0.10630951821804047, 0.15068548917770386, 0.24868062138557434, 0.22149959206581116, 0.08045017719268799, 0.2961408793926239, -0.21844416856765747, -0.1482907086610794, -0.008700191974639893, 0.00790172815322876, -0.14080968499183655, -0.12259256839752197, 0.1416272222995758, -0.07654297351837158, 0.27038291096687317, 0.05329844355583191, -0.060551926493644714, 0.018023759126663208, -0.18092988431453705, 0.0018442869186401367, 0.20973190665245056, -0.020000606775283813, 0.1875617504119873, -0.21129319071769714, 0.07245641946792603, 0.13613992929458618, -0.2062053382396698, -0.13659587502479553, -0.26137998700141907, -0.04979771375656128, -0.09053090214729309, 0.12254592776298523, -0.025513887405395508, -0.2898591458797455, -0.06267595291137695, 0.2907460629940033, -0.23383879661560059, -0.037887245416641235, -0.22382387518882751, -0.20352645218372345, -0.20954248309135437, -0.000669330358505249, -0.16661368310451508, -0.221088245511055, -0.030841469764709473, -0.2696206569671631, 0.2674046456813812, 0.0943651795387268, -0.23289410769939423, -0.22985005378723145, 0.11570614576339722, 0.17229071259498596, -0.2392827421426773, -0.04137280583381653, -0.2502642869949341, 0.303626149892807, -0.15732020139694214, 0.252675861120224, 0.23566773533821106, 0.24652013182640076, -0.2437528520822525, 0.0427643358707428, -0.04301437735557556, 0.05310222506523132, 0.0170251727104187, 0.22851523756980896, -0.09093940258026123, -0.054190874099731445, 0.07087165117263794, 0.3017102777957916, -0.19455929100513458, -0.22835421562194824, -0.15220966935157776, -0.0923706591129303, -0.1309095025062561, 0.20600154995918274, -0.27083414793014526, -0.09492245316505432, 0.24947378039360046, -0.16208304464817047, -0.2395837903022766, -0.24058625102043152, -0.0033761262893676758, 0.01514345407485962, 0.0699707567691803, 0.1647861897945404, 0.12035247683525085, 0.12922203540802002, 0.15095630288124084, 0.0948428213596344, 0.08149540424346924, -0.10938261449337006, -0.08874581754207611, -0.12716282904148102, 0.20391026139259338, -0.22052176296710968, -0.1288231611251831, -0.046083807945251465, 0.2581808269023895, 0.21875980496406555, 0.15191596746444702, -0.27225977182388306, -0.21998411417007446, -0.08861316740512848, 0.3014139235019684, -0.002898186445236206, -0.16669172048568726, 0.09236869215965271, -0.14540302753448486, -0.01884150505065918, 0.22196301817893982, -0.2084055095911026, 0.1976005733013153, 0.29981985688209534, -0.24879449605941772, -0.15412446856498718};
float b2_c1_bias[8] = {0.0, 0.0, 0.0, 0.0, 0.0, 0.0, 0.0, 0.0};
float b2_c2_kernel[1*8*8] = {0.14213383197784424, -0.6066648364067078, 0.3507001996040344, 0.4033750891685486, -0.22696903347969055, 0.11675918102264404, -0.33510535955429077, -0.5339257121086121, 0.37409478425979614, 0.20629733800888062, -0.035299837589263916, -0.4961642920970917, -0.31596580147743225, -0.3282485902309418, 0.4714546799659729, 0.17563772201538086, -0.5244671702384949, -0.44802266359329224, 0.08717966079711914, 0.006223440170288086, 0.0192718505859375, -0.4898807108402252, -0.0575331449508667, -0.3701457381248474, 0.19864422082901, 0.013868629932403564, 0.4295669198036194, 0.5612791180610657, 0.43571287393569946, 0.6010307669639587, -0.027878165245056152, 0.0973360538482666, -0.35836872458457947, 0.0032590627670288086, -0.3863945007324219, 0.3452061414718628, -0.3033142387866974, -0.23935967683792114, -0.32954680919647217, -0.16341480612754822, -0.203337162733078, 0.2579524517059326, -0.07916361093521118, 0.08711904287338257, -0.5011918544769287, 0.27578282356262207, 0.4059820771217346, -0.4985220730304718, -0.017573416233062744, 0.4286258816719055, 0.2721053957939148, 0.18401789665222168, -0.38143980503082275, -0.25537627935409546, 0.29171520471572876, 0.3885088562965393, -0.2191382646560669, 0.21416634321212769, -0.23630213737487793, -0.12840217351913452, 0.015666186809539795, -0.20394495129585266, -0.12306639552116394, 0.40150517225265503};
float b2_c2_bias[8] = {0.0, 0.0, 0.0, 0.0, 0.0, 0.0, 0.0, 0.0};
Block block2(4, // kernel_size
             8, 8, // in_d, out_d
             b2_c1_kernel, b2_c1_bias, b2_c2_kernel, b2_c2_bias);

float b3_c1_kernel[4*8*12] = {0.14996874332427979, 0.044141680002212524, -0.2706087529659271, 0.2050037384033203, 0.202029287815094, -0.06658975780010223, 0.16388052701950073, 0.10274943709373474, -0.10479365289211273, -0.2620902955532074, -0.03115902841091156, -0.010988056659698486, 0.07545173168182373, 0.08636707067489624, -0.0989324301481247, -0.2577688992023468, 0.12827616930007935, 0.06879428029060364, 0.08334332704544067, 0.2639511823654175, -0.03433941304683685, -0.24612678587436676, -0.005231380462646484, -0.021308958530426025, -0.1369999200105667, 0.1695982813835144, -0.21602582931518555, -0.036572977900505066, 0.26690053939819336, -0.20726415514945984, 0.1992257833480835, -0.140375018119812, -0.0889081060886383, 0.0638791024684906, -0.04140380024909973, -0.22929500043392181, -0.1930561363697052, -0.059128329157829285, -0.037698253989219666, -0.010536432266235352, 0.2170315384864807, -0.14107097685337067, 0.11751487851142883, -0.1905057579278946, 0.0784870982170105, 0.2025265097618103, 0.19482329487800598, -0.02714751660823822, -0.1867377907037735, 0.1984320878982544, -0.054636791348457336, 0.09519731998443604, 0.06103372573852539, 0.03143790364265442, 0.2569569945335388, 0.01272892951965332, -0.15945394337177277, 0.18340003490447998, 0.17261627316474915, -0.07289300858974457, -0.11276064813137054, 0.08638960123062134, 0.19738614559173584, 0.11454519629478455, -0.04821541905403137, -0.18964767456054688, -0.13362006843090057, -0.2103729099035263, 0.2550552487373352, 0.18349987268447876, -0.26630792021751404, 0.06675037741661072, 0.0842343270778656, -0.03122347593307495, 0.04107433557510376, 0.07614704966545105, -0.06887438893318176, -0.26473134756088257, 0.007331877946853638, 0.034515380859375, 0.03471171855926514, -0.22457727789878845, -0.0007809698581695557, -0.018395572900772095, 0.18828395009040833, 0.2106899619102478, -0.1030740737915039, 0.1518038809299469, -0.1183021068572998, -0.10854111611843109, -0.24948188662528992, -0.050984129309654236, -0.21846500039100647, -0.16124840080738068, 0.1467115581035614, 0.20419344305992126, 0.15248516201972961, -0.2066124528646469, -0.22994761168956757, 0.07890921831130981, -0.27018460631370544, 0.23449939489364624, 0.13055002689361572, 0.18547135591506958, 0.013245999813079834, -0.010296285152435303, -0.2629671096801758, 0.12644311785697937, -0.04829952120780945, -0.17902883887290955, 0.14556899666786194, 0.04352360963821411, -0.18142107129096985, -0.19720950722694397, -0.1851295530796051, -0.2575584650039673, 0.023994803428649902, 0.11342188715934753, 0.2704392671585083, 0.05809605121612549, 0.2655673623085022, 0.25801777839660645, -0.2688755989074707, -0.05462588369846344, -0.16337214410305023, -0.0388951450586319, -0.1783793568611145, -0.0721360594034195, -0.004849433898925781, -0.2580086588859558, 0.15084773302078247, 0.12580278515815735, 0.04474565386772156, -0.0006735026836395264, -0.17352379858493805, 0.23515254259109497, 0.2417750358581543, -0.009919345378875732, -0.130381241440773, -0.13052880764007568, 0.06370782852172852, -0.012585341930389404, -0.24644292891025543, 0.19721832871437073, -0.2539507746696472, -0.17069455981254578, -0.07680952548980713, 0.002800583839416504, -0.06078268587589264, -0.0665939450263977, -0.19030916690826416, 0.26909834146499634, -0.24717259407043457, 0.1934376358985901, 0.26625460386276245, 0.16068699955940247, -0.1744510978460312, -0.08977298438549042, -0.09994454681873322, 0.028619110584259033, 0.2108217477798462, -0.19131024181842804, 0.06297725439071655, -0.009614884853363037, 0.13662880659103394, 0.24722445011138916, 0.25915032625198364, 0.2665475010871887, 0.05060744285583496, 0.056617915630340576, 0.10892608761787415, 0.030035465955734253, -0.22727710008621216, 0.17054125666618347, -0.012117922306060791, 0.029388844966888428, -0.034727320075035095, 0.20573720335960388, 0.05045825242996216, 0.032733529806137085, -0.11559230089187622, 0.1738230288028717, -0.21273386478424072, -0.0744275450706482, -0.015781283378601074, -0.004601776599884033, 0.1601186990737915, 0.09616163372993469, -0.22172832489013672, 0.2537744641304016, 0.27011173963546753, -0.2539427578449249, -0.11030638217926025, 0.07839387655258179, 0.1837737262248993, -0.1621990203857422, 0.08255985379219055, -0.2524850070476532, 0.15755409002304077, -0.2308850884437561, 0.16830286383628845, 0.1400361955165863, -0.16854724287986755, -0.05857503414154053, -0.1618056297302246, 0.13749432563781738, -0.2106507420539856, -0.1618782877922058, -0.20874422788619995, 0.1074691116809845, -0.19282720983028412, -0.00938144326210022, 0.17824941873550415, 0.07855650782585144, -0.17836852371692657, -0.2581745684146881, 0.2225591242313385, -0.1567748785018921, -0.21035103499889374, 0.029619663953781128, 0.10760578513145447, -0.08548259735107422, 0.13594874739646912, 0.2667086124420166, 0.017032504081726074, -0.04953637719154358, -0.1866607367992401, -0.12280809879302979, 0.08383184671401978, -0.21122798323631287, -0.12831932306289673, 0.2501683235168457, 0.08091041445732117, -0.16844964027404785, 0.04611283540725708, -0.09060560166835785, -0.05609282851219177, -0.2701801061630249, 0.07089868187904358, 0.22972464561462402, -0.04604904353618622, 0.24322623014450073, 0.20024141669273376, 0.23468351364135742, -0.25130873918533325, -0.1870865821838379, -0.1881927251815796, 0.17703312635421753, 0.1073102056980133, 0.1232261061668396, -0.2356353998184204, 0.08177626132965088, 0.07143238186836243, -0.00888875126838684, -0.11886408925056458, -0.14237181842327118, -0.028283491730690002, 0.09733664989471436, 0.11575546860694885, -0.21308279037475586, -0.039531633257865906, -0.19628894329071045, -0.021880537271499634, -0.06667327880859375, 0.14330539107322693, -0.27220797538757324, -0.2530566453933716, -0.21481254696846008, 0.1825859546661377, 0.16908377408981323, -0.24622759222984314, -0.20529744029045105, -0.21376164257526398, 0.14797350764274597, 0.10224848985671997, -0.18055376410484314, -0.22132806479930878, 0.025516539812088013, 0.18590953946113586, -0.16426119208335876, -0.0090903639793396, -0.1177927553653717, 0.08832281827926636, -0.04197412729263306, -0.021760672330856323, -0.08066987991333008, -0.019762098789215088, -0.05234171450138092, 0.035129666328430176, -0.08187656104564667, -0.08182060718536377, -0.11598163843154907, -0.2386949360370636, -0.23768098652362823, -0.0865517258644104, 0.1494031548500061, -0.06374779343605042, -0.2617589831352234, -0.22901737689971924, 0.036500751972198486, 0.08165556192398071, 0.09959426522254944, 0.13292911648750305, 0.010866224765777588, -0.10732495784759521, -0.09263303875923157, -0.03631840646266937, 0.20830759406089783, -0.24631240963935852, -0.2738514840602875, 0.091219961643219, 0.27091431617736816, -0.08035300672054291, 0.2628899812698364, -0.12265419960021973, -0.03265823423862457, 0.042782723903656006, -0.2616969645023346, -0.17753779888153076, -0.03415548801422119, 0.16144827008247375, -0.050844669342041016, -0.12906955182552338, -0.262037068605423, -0.24650521576404572, -0.08859652280807495, 0.2461470365524292, 0.2434149980545044, -0.14668753743171692, -0.027237296104431152, -0.24112489819526672, 0.07362690567970276, -0.08522742986679077, 0.20627430081367493, -0.018811166286468506, -0.03789903223514557, -0.24696579575538635, -0.010946214199066162, -0.10849533975124359, 0.2682579755783081, 0.06103822588920593, -0.15058490633964539, 0.12930762767791748, -0.24237141013145447, 0.2594371438026428, -0.07269379496574402, -0.057372137904167175, -0.24428609013557434, 0.21545934677124023, -0.022452116012573242, -0.025074511766433716, -0.08901543915271759, -0.1600114107131958, -0.17444273829460144, -0.14260302484035492, 0.1460428237915039, -0.08490690588951111, -0.17852085828781128, 0.20747113227844238, 0.13399425148963928, 0.22450289130210876, -0.07543835043907166, 0.029146939516067505, 0.18685322999954224, -0.10956968367099762, -0.2630215585231781, 0.23784887790679932, 0.24930554628372192, 0.03410416841506958, -0.17689889669418335, 0.1836065649986267, 0.1185581386089325, -0.024570971727371216, 0.22873634099960327, -0.2031054049730301, 0.04592427611351013, -0.20351505279541016, -0.18302389979362488, -0.23380514979362488, -0.04074093699455261, 0.2673451900482178, 0.21617743372917175, -0.027276545763015747, -0.2411600947380066};
float b3_c1_bias[12] = {0.0, 0.0, 0.0, 0.0, 0.0, 0.0, 0.0, 0.0, 0.0, 0.0, 0.0, 0.0};
float b3_c2_kernel[1*12*12] = {-0.4296187162399292, -0.19549930095672607, -0.3444957733154297, 0.4887925386428833, 0.23006057739257812, -0.3304988145828247, 0.02463817596435547, 0.2813127040863037, -0.23460233211517334, -0.09631812572479248, 0.27118873596191406, 0.3139268159866333, 0.39193642139434814, -0.35448527336120605, -0.17470836639404297, -0.17369723320007324, -0.2181851863861084, -0.18443405628204346, 0.011569976806640625, 0.36805927753448486, 0.41541993618011475, 0.2621314525604248, -0.4905928373336792, -0.09375274181365967, -0.06795501708984375, 0.26474201679229736, -0.2185460329055786, -0.28765416145324707, 0.012194156646728516, -0.40555286407470703, 0.41979897022247314, 0.056072115898132324, -0.29242944717407227, -0.01589334011077881, -0.20416176319122314, -0.4095175266265869, 0.18742406368255615, 0.12794673442840576, -0.48769426345825195, 0.07248914241790771, 0.3251091241836548, -0.34863269329071045, 0.17559564113616943, 0.043479323387145996, 0.09900271892547607, -0.1363738775253296, -0.25837886333465576, 0.34784436225891113, -0.4911625385284424, 0.33452272415161133, 0.29227685928344727, -0.1823636293411255, -0.21898269653320312, -0.35048210620880127, -0.02709066867828369, -0.028986096382141113, -0.012842297554016113, 0.23903357982635498, -0.05932915210723877, -0.2818331718444824, 0.3460472822189331, -0.1515742540359497, -0.3699800968170166, -0.38868987560272217, 0.34767603874206543, 0.2097923755645752, -0.2767922878265381, -0.4899076223373413, -0.42086052894592285, 0.05273771286010742, -0.4378173351287842, 0.22441840171813965, -0.23856568336486816, -0.36154496669769287, -0.3001856803894043, -0.2617011070251465, -0.3333996534347534, -0.36804699897766113, -0.24018526077270508, 0.3106863498687744, 0.018114566802978516, 0.25451648235321045, 0.15706217288970947, 0.09845960140228271, 0.468392014503479, -0.21566259860992432, -0.28464484214782715, 0.4453165531158447, -0.28454840183258057, -0.025190114974975586, 0.36037588119506836, -0.04123485088348389, 0.3394811153411865, 0.48267650604248047, 0.18037211894989014, -0.20821928977966309, -0.46724605560302734, 0.47908127307891846, -0.11200857162475586, -0.14008164405822754, 0.4528787136077881, 0.18275225162506104, -0.37965476512908936, -0.3584721088409424, -0.4667055606842041, 0.3797346353530884, -0.04345345497131348, -0.2599186897277832, -0.09381687641143799, 0.4519338607788086, 0.1990196704864502, 0.0018676519393920898, -0.12594842910766602, 0.45177555084228516, 0.1395038366317749, -0.05632984638214111, -0.30574822425842285, 0.049869418144226074, -0.49826347827911377, -0.4315251111984253, 0.06149137020111084, -0.3988649845123291, -0.2051229476928711, -0.2811993360519409, -0.2100139856338501, 0.024360179901123047, -0.48336565494537354, -0.07437419891357422, 0.31562209129333496, 0.4463355541229248, -0.025569796562194824, -0.26207590103149414, 0.009722709655761719, 0.1763134002685547, 0.08296895027160645, -0.49212634563446045, -0.44248485565185547, -0.30736732482910156, 0.08563053607940674, -0.1350778341293335, 0.10620331764221191, -0.4394341707229614, -0.15098273754119873, -0.3348100185394287};
float b3_c2_bias[12] = {0.0, 0.0, 0.0, 0.0, 0.0, 0.0, 0.0, 0.0, 0.0, 0.0, 0.0, 0.0};
Block block3(4, // kernel_size
             8, 12, // in_d, out_d
             b3_c1_kernel, b3_c1_bias, b3_c2_kernel, b3_c2_bias);

float layer0_cache_buffer[4*4*4];
RollingCache layer0_cache(
  4, // depth
  4, // dilation
  4, // kernel size
  layer0_cache_buffer
);

float layer1_cache_buffer[8*16*4];
RollingCache layer1_cache(
  8, // depth
  16, // dilation
  4, // kernel size
  layer1_cache_buffer
);

float layer2_cache_buffer[8*64*4];
RollingCache layer2_cache(
  8, // depth
  64, // dilation
  4, // kernel size
  layer2_cache_buffer
);

float classifier_weights[12*2] = {-0.2692181169986725, -0.3491378426551819, 0.2830290198326111, -0.5793825387954712, -0.24965626001358032, -0.6306253671646118, -0.18348592519760132, 0.1271456480026245, 0.583158016204834, -0.2827107608318329, -0.18998673558235168, -0.2579365372657776, 0.562775731086731, -0.24545469880104065, -0.5909672379493713, -0.02844226360321045, 0.5167138576507568, -0.32502463459968567, -0.2617639899253845, 0.5191030502319336, 0.2609606385231018, 0.24870574474334717, 0.1175345778465271, 0.053899168968200684};
float classifier_biases[2] = {0.0, 0.0};
Classifier classifier(
  12, // input_dim
  2, // output_dim
  classifier_weights,
  classifier_biases
);
